digraph Tree {
node [shape=box, style="filled", color="black", fontname="helvetica"] ;
edge [fontname="helvetica"] ;
0 [label="Income <= 2750.0\ngini = 0.815\nsamples = 20\nvalue = [2, 5, 3, 4, 4, 2]\nclass = car", fillcolor="#f9fdf3"] ;
1 [label="Age <= 40.5\ngini = 0.722\nsamples = 12\nvalue = [2, 0, 0, 4, 4, 2]\nclass = metro", fillcolor="#ffffff"] ;
0 -> 1 [labeldistance=2.5, labelangle=45, headlabel="True"] ;
2 [label="Age <= 12.0\ngini = 0.64\nsamples = 10\nvalue = [2, 0, 0, 4, 4, 0]\nclass = metro", fillcolor="#ffffff"] ;
1 -> 2 ;
3 [label="Gender <= 0.5\ngini = 0.444\nsamples = 3\nvalue = [2, 0, 0, 0, 1, 0]\nclass = bicycle", fillcolor="#f2c09c"] ;
2 -> 3 ;
4 [label="gini = 0.0\nsamples = 2\nvalue = [2, 0, 0, 0, 0, 0]\nclass = bicycle", fillcolor="#e58139"] ;
3 -> 4 ;
5 [label="gini = 0.0\nsamples = 1\nvalue = [0, 0, 0, 0, 1, 0]\nclass = scooter", fillcolor="#8139e5"] ;
3 -> 5 ;
6 [label="Income <= 100.0\ngini = 0.49\nsamples = 7\nvalue = [0, 0, 0, 4, 3, 0]\nclass = metro", fillcolor="#cee6f8"] ;
2 -> 6 ;
7 [label="gini = 0.0\nsamples = 3\nvalue = [0, 0, 0, 3, 0, 0]\nclass = metro", fillcolor="#399de5"] ;
6 -> 7 ;
8 [label="Age <= 24.0\ngini = 0.375\nsamples = 4\nvalue = [0, 0, 0, 1, 3, 0]\nclass = scooter", fillcolor="#ab7bee"] ;
6 -> 8 ;
9 [label="gini = 0.0\nsamples = 3\nvalue = [0, 0, 0, 0, 3, 0]\nclass = scooter", fillcolor="#8139e5"] ;
8 -> 9 ;
10 [label="gini = 0.0\nsamples = 1\nvalue = [0, 0, 0, 1, 0, 0]\nclass = metro", fillcolor="#399de5"] ;
8 -> 10 ;
11 [label="gini = 0.0\nsamples = 2\nvalue = [0, 0, 0, 0, 0, 2]\nclass = taxi", fillcolor="#e5399d"] ;
1 -> 11 ;
12 [label="Age <= 66.0\ngini = 0.469\nsamples = 8\nvalue = [0, 5, 3, 0, 0, 0]\nclass = car", fillcolor="#d8f5b0"] ;
0 -> 12 [labeldistance=2.5, labelangle=-45, headlabel="False"] ;
13 [label="gini = 0.0\nsamples = 5\nvalue = [0, 5, 0, 0, 0, 0]\nclass = car", fillcolor="#9de539"] ;
12 -> 13 ;
14 [label="gini = 0.0\nsamples = 3\nvalue = [0, 0, 3, 0, 0, 0]\nclass = helicopter", fillcolor="#39e581"] ;
12 -> 14 ;
}